\data\
ngram 1=9
ngram 2=10

\1-grams:
-1.20412	<unk>	0
0	<s>	-0.30103
-0.78914666	</s>	0
-0.67264104	the	-0.30103
-0.9488475	fake	-0.30103
-0.9488475	friend	-0.30103
-0.9488475	of	-0.30103
-0.9488475	family,	-0.30103
-0.9488475	like	-0.30103

\2-grams:
-0.4798441	<s> </s>
-0.6056943	the </s>
-0.44824514	<s> the
-0.21734826	of the
-0.21734826	like the
-0.6518575	the fake
-0.25473	fake friend
-0.25473	friend of
-0.6518575	the family,
-0.25473	family, like

\end\
